svm_type c_svc
kernel_type rbf
gamma 0.0769231
nr_class 3
total_sv 15
rho -1.17644 -5.97829 -0.534818
label 1 2 3
nr_sv 8 3 4
SV
0 25.35211050574082 1:0.1810975 2:0.6625288 3:0.50883084 4:0.37198286 5:0.70978913 6:0.33493772 7:0.5154639 8:0.46585573 9:0.48982916 10:0.51361186 11:0.49983544 12:0.53156597 13:0.50924275 
8.763284768688109 1146.080563293666 1:0.12769428 2:0.70030272 3:0.53056225 4:0.36537878 5:0.59380094 6:0.32716869 7:0.52069311 8:0.5359117 9:0.48253538 10:0.50343313 11:0.49885687 12:0.48995673 13:0.46579205 
0 456.1071849298592 1:0.26114319 2:0.53485605 3:0.52813227 4:0.4604454 5:0.62842823 6:0.4031357 7:0.48416344 8:0.46029806 9:0.46854758 10:0.49335464 11:0.49029175 12:0.49647893 13:0.46331465 
0 2749.364536017189 1:0.13704743 2:0.71568309 3:0.55058207 4:0.48575146 5:0.57117924 6:0.43624297 7:0.53115962 8:0.46985231 9:0.52188548 10:0.51742173 11:0.50732502 12:0.49079202 13:0.54472177 
344.0549933112432 1469.917361536841 1:0.11840417 2:0.55448562 3:0.55067032 4:0.52723286 5:0.67378402 6:0.47370923 7:0.50673505 8:0.4688496 9:0.51505027 10:0.46798358 11:0.50063499 12:0.47788114 13:0.47003259 
0 38.2373691026282 1:0.19322153 2:0.71107537 3:0.54874938 4:0.41356174 5:0.64332105 6:0.44305992 7:0.63288781 8:0.47902774 9:0.52433066 10:0.53618325 11:0.51555417 12:0.52898019 13:0.47711216 
523.2420482422373 2409.706214866851 1:0.18841817 2:0.4949404 3:0.46478885 4:0.49886758 5:0.51484444 6:0.57618268 7:0.5622829 8:0.51171092 9:0.49795584 10:0.43594702 11:0.52392745 12:0.59714432 13:0.48738873 
613.0093499866958 0 1:0.16609686 2:0.67097389 3:0.54516887 4:0.42167679 5:0.56286567 6:0.43591349 7:0.54737423 8:0.5525495 9:0.48633799 10:0.49727197 11:0.58156429 12:0.47334146 13:0.53747043 
-237.2373582844259 293.2456095676091 1:0.039145261 2:0.47496688 3:0.53501026 4:0.44943119 5:0.67520521 6:0.35789645 7:0.60692214 8:0.52262837 9:0.44345503 10:0.53035175 11:0.51874598 12:0.51550659 13:0.5112321 
-314.8755599886694 560.6369646777712 1:0.1821221 2:0.55537083 3:0.53083294 4:0.57478595 5:0.50106549 6:0.53753665 7:0.58350103 8:0.57873985 9:0.48725127 10:0.51531209 11:0.49918301 12:0.50449027 13:0.50376431 
-936.9567580357692 148.5524930484461 1:0.10233257 2:0.58719845 3:0.55473764 4:0.4613784 5:0.51143738 6:0.52055669 7:0.54113223 8:0.54622363 9:0.47704379 10:0.46695572 11:0.521974 12:0.49078574 13:0.49691682 
-3785.318494393416 -725.1089824961615 1:0.16651233 2:0.53082787 3:0.47433937 4:0.54861811 5:0.59477466 6:0.49955248 7:0.57855859 8:0.47184025 9:0.52004151 10:0.5011004 11:0.49974277 12:0.52306928 13:0.46745719 
-417.4038052504334 -0 1:0.27531141 2:0.61844572 3:0.5007631 4:0.31627125 5:0.64989396 6:0.2963934 7:0.50309667 8:0.55060386 9:0.51132691 10:0.52091919 11:0.51019366 12:0.52490235 13:0.45268602 
-922.0085460693326 -277.326084797665 1:0.15148157 2:0.69909845 3:0.60429795 4:0.49907867 5:0.59801021 6:0.38384174 7:0.53275742 8:0.56829742 9:0.52538734 10:0.46584413 11:0.45539475 12:0.46353764 13:0.54402771 
-3170.034494539596 -0 1:0.13937824 2:0.68418128 3:0.52137077 4:0.43426744 5:0.54523533 6:0.44731236 7:0.48348844 8:0.49597067 9:0.55212784 10:0.45024509 11:0.48812384 12:0.53876636 13:0.51438418 
