svm_type c_svc
kernel_type rbf
gamma 0.5
nr_class 3
total_sv 123
rho -2.13625 2.07776 4.60731
label 1 2 3
nr_sv 41 48 34
SV
32 32 1:0.35803241 2:0.48652515 3:0.54365943 4:0.57448566 5:0.50747445 6:0.49487362 7:0.55846256 8:0.54603369 9:0.54913364 10:0.56799684 11:0.49925837 12:0.52385723 13:0.49822279 
32 30.01406608656401 1:0.17202581 2:0.50085277 3:0.59371582 4:0.55977177 5:0.49465457 6:0.55958298 7:0.54939107 8:0.53435258 9:0.53957608 10:0.49844954 11:0.50739527 12:0.54632292 13:0.5288571 
5.974824902489791 0 1:0.018632785 2:0.6776722 3:0.55354835 4:0.60706656 5:0.53846842 6:0.46847464 7:0.57400887 8:0.45936314 9:0.54065104 10:0.49010285 11:0.50449148 12:0.54015339 13:0.50906948 
32 32 1:0.14946157 2:0.48637807 3:0.59328952 4:0.5713305 5:0.5483155 6:0.54374786 7:0.54649388 8:0.51949271 9:0.56862953 10:0.49711614 11:0.51337294 12:0.51333318 13:0.46987579 
32 0 1:0.16167178 2:0.52549916 3:0.57526222 4:0.55478971 5:0.48059957 6:0.51706385 7:0.54477401 8:0.54026083 9:0.54176138 10:0.52618955 11:0.53180047 12:0.49463461 13:0.50932752 
32 32 1:0.35166876 2:0.46981875 3:0.58109934 4:0.52637865 5:0.50425683 6:0.55556465 7:0.5665307 8:0.50338486 9:0.53933001 10:0.5283801 11:0.50500824 12:0.5260616 13:0.49947829 
32 32 1:0.31596192 2:0.45441089 3:0.51415237 4:0.55165041 5:0.51434187 6:0.5189285 7:0.54709585 8:0.47717214 9:0.54784384 10:0.48708265 11:0.45206592 12:0.54345609 13:0.52568939 
32 32 1:0.41233843 2:0.46646655 3:0.50727051 4:0.52066819 5:0.49606612 6:0.51408331 7:0.51705082 8:0.49194394 9:0.4871085 10:0.51325091 11:0.4524098 12:0.50308825 13:0.49494667 
32 32 1:0.21676541 2:0.54248854 3:0.66537816 4:0.590096 5:0.54917698 6:0.52313309 7:0.43670854 8:0.43431277 9:0.55420859 10:0.47635468 11:0.45912988 12:0.47470611 13:0.50897301 
32 0 1:0.25196137 2:0.44203601 3:0.54026738 4:0.57202613 5:0.49744438 6:0.52221589 7:0.51700249 8:0.5027144 9:0.46162921 10:0.5148548 11:0.44599141 12:0.50612857 13:0.4702886 
32 32 1:0.26720786 2:0.57602636 3:0.651019 4:0.55338159 5:0.5056998 6:0.52699743 7:0.55749381 8:0.45319141 9:0.51001524 10:0.47098816 11:0.47029906 12:0.48954888 13:0.49451913 
32 0 1:0.21177346 2:0.45211558 3:0.49003076 4:0.57326423 5:0.46260562 6:0.51181406 7:0.45675149 8:0.51533323 9:0.47927642 10:0.50661428 11:0.50057253 12:0.50550634 13:0.47453808 
32 32 1:0.44818891 2:0.47965659 3:0.51194835 4:0.49641196 5:0.49798346 6:0.50555049 7:0.48116297 8:0.45499128 9:0.50540092 10:0.44279901 11:0.48976935 12:0.45573221 13:0.53857903 
32 0 1:0.21678218 2:0.44024445 3:0.49922865 4:0.58928754 5:0.47866772 6:0.50028958 7:0.51442025 8:0.47614119 9:0.48425438 10:0.49791729 11:0.47390454 12:0.52926206 13:0.4930282 
32 32 1:0.29054467 2:0.56567322 3:0.5735302 4:0.52725357 5:0.52410862 6:0.55138084 7:0.47932981 8:0.54961092 9:0.51690951 10:0.54007946 11:0.48651986 12:0.5002918 13:0.46838447 
32 32 1:0.4850657 2:0.46655209 3:0.48002209 4:0.53875884 5:0.45955341 6:0.4781466 7:0.51124352 8:0.4728046 9:0.51613404 10:0.52242932 11:0.45819827 12:0.55773031 13:0.45296649 
32 0 1:0.12406099 2:0.53838789 3:0.48617278 4:0.45585688 5:0.48422393 6:0.48863688 7:0.47628157 8:0.55692275 9:0.4836698 10:0.44576652 11:0.51014974 12:0.48905725 13:0.47222864 
32 32 1:0.20580328 2:0.55063514 3:0.50156268 4:0.57027995 5:0.54144739 6:0.50488353 7:0.53542009 8:0.4996573 9:0.48487932 10:0.5268049 11:0.51154365 12:0.51112231 13:0.50761861 
32 32 1:0.24908852 2:0.6618801 3:0.5278704 4:0.44956052 5:0.53734797 6:0.44039696 7:0.4937121 8:0.55885927 9:0.51824463 10:0.5069342 11:0.5258197 12:0.52094482 13:0.5033558 
32 32 1:0.45060391 2:0.51636592 3:0.47385703 4:0.47217658 5:0.57297501 6:0.53054246 7:0.5044472 8:0.54280193 9:0.51037672 10:0.50832086 11:0.51324401 12:0.51811649 13:0.53414078 
32 32 1:0.26740916 2:0.62755492 3:0.57891614 4:0.40606791 5:0.5109683 6:0.47545584 7:0.50171288 8:0.47647277 9:0.52522428 10:0.47872366 11:0.49884625 12:0.43165474 13:0.50969571 
32 0 1:0.21558512 2:0.60017899 3:0.63846702 4:0.45125377 5:0.57048985 6:0.36768337 7:0.52714691 8:0.508271 9:0.49924367 10:0.53095435 11:0.5253368 12:0.51019587 13:0.53384475 
32 32 1:0.23758526 2:0.56013369 3:0.52104969 4:0.50170021 5:0.52835523 6:0.5624341 7:0.52090192 8:0.51203799 9:0.52311773 10:0.48569424 11:0.52792886 12:0.50239622 13:0.48508492 
32 32 1:0.19867304 2:0.72485483 3:0.57730148 4:0.52233805 5:0.48816005 6:0.40581211 7:0.47036181 8:0.53196689 9:0.51655659 10:0.53716147 11:0.49971092 12:0.55298177 13:0.52717782 
32 32 1:0.17206595 2:0.69584162 3:0.62304999 4:0.43857775 5:0.51713118 6:0.4956493 7:0.52348903 8:0.53759537 9:0.5255336 10:0.47873586 11:0.59149553 12:0.48006161 13:0.47654232 
32 0 1:0.16648776 2:0.4923911 3:0.51533868 4:0.50133485 5:0.5689824 6:0.58362997 7:0.53349415 8:0.53578558 9:0.46001756 10:0.50233213 11:0.48574405 12:0.54806235 13:0.50629423 
11.39699341352217 0 1:0.082211325 2:0.44276117 3:0.55360296 4:0.48090064 5:0.517274 6:0.51427788 7:0.49579876 8:0.53648962 9:0.47640931 10:0.50741226 11:0.52276096 12:0.51691794 13:0.45315446 
28.10039258411984 4.62446209418522 1:0.3074106 2:0.34870569 3:0.46019067 4:0.51842827 5:0.53097613 6:0.51827828 7:0.51733484 8:0.53576924 9:0.49773603 10:0.51463982 11:0.5332044 12:0.50932554 13:0.47069237 
12.24701295026055 0 1:0.048908083 2:0.60698074 3:0.52020044 4:0.49832292 5:0.6181542 6:0.55889715 7:0.54367601 8:0.58231717 9:0.55157642 10:0.53727865 11:0.52400812 12:0.50199259 13:0.48302962 
24.78856865065894 0 1:0.006855567 2:0.72553585 3:0.55817395 4:0.50309457 5:0.49810344 6:0.50391504 7:0.59481003 8:0.4971568 9:0.48095351 10:0.52509891 11:0.50571859 12:0.49678514 13:0.47314713 
32 0 1:0.13511852 2:0.53918552 3:0.49520175 4:0.51108412 5:0.5556713 6:0.47898559 7:0.46965787 8:0.42531983 9:0.50629876 10:0.49247761 11:0.53633416 12:0.48919334 13:0.49301158 
32 32 1:0.32673822 2:0.52676567 3:0.49819223 4:0.45762076 5:0.52377433 6:0.44485879 7:0.58021662 8:0.49636736 9:0.46433972 10:0.53138849 11:0.52445044 12:0.47973501 13:0.50779479 
32 32 1:0.44536962 2:0.47618668 3:0.52708523 4:0.42782138 5:0.51552312 6:0.50099149 7:0.55685579 8:0.50031287 9:0.50821595 10:0.49713257 11:0.48514674 12:0.47915354 13:0.51385102 
14.86997013254005 0 1:0.15413139 2:0.53088807 3:0.52388548 4:0.5061331 5:0.56527513 6:0.49430441 7:0.52947108 8:0.48445228 9:0.4918638 10:0.4956968 11:0.47072693 12:0.49974094 13:0.49376681 
32 0 1:0.11535445 2:0.54834754 3:0.51185168 4:0.50849991 5:0.55553004 6:0.46970824 7:0.53566538 8:0.5463378 9:0.49256445 10:0.48862237 11:0.55180112 12:0.49792243 13:0.51439655 
32 0 1:0.14730478 2:0.56585783 3:0.54733159 4:0.47917238 5:0.5508152 6:0.4938062 7:0.52899145 8:0.44582801 9:0.50415921 10:0.50851568 11:0.51455175 12:0.50612428 13:0.52853435 
32 32 1:0.33667142 2:0.48310262 3:0.49081831 4:0.48265845 5:0.51292687 6:0.51134642 7:0.53608948 8:0.48501676 9:0.50378212 10:0.5043953 11:0.4437389 12:0.46459608 13:0.49113508 
32 0 1:0.13442578 2:0.54161208 3:0.52503347 4:0.48261189 5:0.58450888 6:0.48927099 7:0.5287377 8:0.51031035 9:0.48683357 10:0.53238828 11:0.54218273 12:0.55328477 13:0.49033408 
32 32 1:0.35130236 2:0.51570142 3:0.54746133 4:0.47279752 5:0.48744061 6:0.4705937 7:0.54820368 8:0.53101007 9:0.46263302 10:0.51082395 11:0.49537309 12:0.52205452 13:0.54629178 
32 32 1:0.33406741 2:0.52913907 3:0.52671119 4:0.5168418 5:0.51922221 6:0.48662505 7:0.5100261 8:0.50960743 9:0.50304703 10:0.54723878 11:0.54851166 12:0.51533742 13:0.48802444 
32 32 1:0.32511871 2:0.52056582 3:0.51654583 4:0.46229512 5:0.52907027 6:0.46307295 7:0.4912458 8:0.48864239 9:0.46993427 10:0.54845004 11:0.51021277 12:0.50963732 13:0.47333525 
-32 0 1:0.11559844 2:0.60875639 3:0.67697143 4:0.50614323 5:0.51715599 6:0.47011216 7:0.51244265 8:0.45831096 9:0.48416432 10:0.50464131 11:0.52821758 12:0.51263687 13:0.48554187 
-32 19.65149470012809 1:0.16868816 2:0.51608267 3:0.61645762 4:0.4835317 5:0.5413918 6:0.51129103 7:0.51498771 8:0.60130259 9:0.51520939 10:0.49144137 11:0.44517287 12:0.45656223 13:0.51498148 
-32 32 1:0.44035257 2:0.4951604 3:0.48066282 4:0.50323062 5:0.51810006 6:0.5401764 7:0.48475631 8:0.48332061 9:0.51941108 10:0.47104506 11:0.46689821 12:0.49993042 13:0.45812265 
-32 0 1:0.17475171 2:0.54014984 3:0.49406525 4:0.55124593 5:0.50479405 6:0.54088893 7:0.51816805 8:0.49699245 9:0.4676401 10:0.49561979 11:0.53297505 12:0.48600676 13:0.4562229 
-32 32 1:0.29133952 2:0.54584992 3:0.54795203 4:0.4581011 5:0.52327543 6:0.50657087 7:0.48989373 8:0.52028423 9:0.5253573 10:0.41900066 11:0.45905962 12:0.47552253 13:0.47240378 
-32 0 1:0.14749482 2:0.62715983 3:0.62165843 4:0.51654234 5:0.49383243 6:0.50527512 7:0.47783318 8:0.50450621 9:0.46864793 10:0.50336768 11:0.53911962 12:0.51340816 13:0.51959673 
-32 0 1:0.11549528 2:0.58101268 3:0.56739332 4:0.48558411 5:0.51722004 6:0.47239344 7:0.55974566 8:0.48232854 9:0.50838743 10:0.5090074 11:0.50908926 12:0.47447115 13:0.48327207 
-0 32 1:0.4133134 2:0.51515995 3:0.54951753 4:0.48027341 5:0.51748956 6:0.48555431 7:0.48609868 8:0.5089733 9:0.51325942 10:0.47404099 11:0.52451941 12:0.51507268 13:0.45635938 
-32 0 1:0.13409715 2:0.54306802 3:0.54049493 4:0.40990687 5:0.52015946 6:0.52361288 7:0.5132343 8:0.47764125 9:0.47583855 10:0.47396151 11:0.50885297 12:0.51960794 13:0.49254913 
-32 0 1:0.14667572 2:0.52935821 3:0.50331018 4:0.44644996 5:0.51402263 6:0.49078203 7:0.5286138 8:0.51104966 9:0.44004826 10:0.50680126 11:0.52457199 12:0.48560314 13:0.47389187 
-32 0 1:0.15405776 2:0.65278157 3:0.54941851 4:0.50353373 5:0.53328322 6:0.50784338 7:0.50824271 8:0.5053272 9:0.49363129 10:0.46700327 11:0.51149493 12:0.51099372 13:0.49674744 
-32 32 1:0.38167997 2:0.51163903 3:0.50824878 4:0.51468754 5:0.47461299 6:0.47987862 7:0.4634821 8:0.51693836 9:0.56396091 10:0.53239179 11:0.50689075 12:0.49290098 13:0.47907738 
-32 32 1:0.42898432 2:0.55831408 3:0.49266715 4:0.4801652 5:0.54557551 6:0.44934934 7:0.54879736 8:0.54504118 9:0.56001854 10:0.51581065 11:0.53597855 12:0.50197921 13:0.50973714 
-32 0 1:0.29749822 2:0.55216945 3:0.46314249 4:0.49011859 5:0.56475117 6:0.49737595 7:0.50360466 8:0.47689362 9:0.48894296 10:0.48672542 11:0.54173651 12:0.51959976 13:0.47151215 
-10.93806698978922 32 1:0.42063539 2:0.55976093 3:0.58163498 4:0.46481004 5:0.55959241 6:0.5104274 7:0.55824096 8:0.52713729 9:0.55172861 10:0.50106496 11:0.4863819 12:0.47285182 13:0.43122832 
-32 25.77151255027029 1:0.1511222 2:0.56341811 3:0.68504889 4:0.45900227 5:0.45030897 6:0.40263064 7:0.57041331 8:0.49876652 9:0.51677111 10:0.51952215 11:0.50118875 12:0.50578278 13:0.50595237 
-32 0.2739644000821843 1:0.18111334 2:0.53532146 3:0.52466638 4:0.53203562 5:0.48366867 6:0.44675405 7:0.53774495 8:0.51600088 9:0.48702331 10:0.52790139 11:0.48768526 12:0.50238493 13:0.51853624 
-32 32 1:0.26016939 2:0.56379642 3:0.522646 4:0.4675376 5:0.46634329 6:0.44266222 7:0.46524913 8:0.48211098 9:0.45125885 10:0.49156672 11:0.53656793 12:0.4913061 13:0.55255149 
-23.76539222455002 32 1:0.43996024 2:0.56393795 3:0.50732691 4:0.48224478 5:0.4959873 6:0.47584153 7:0.4997914 8:0.49957201 9:0.51531669 10:0.51099617 11:0.50143475 12:0.48910876 13:0.44975746 
-0 32 1:0.4554423 2:0.56899502 3:0.55488346 4:0.49408195 5:0.53897515 6:0.49256213 7:0.51558562 8:0.52852206 9:0.49589129 10:0.50190774 11:0.49622943 12:0.48210508 13:0.51432061 
-32 32 1:0.29061261 2:0.54273731 3:0.49302325 4:0.52526389 5:0.63168923 6:0.47773456 7:0.51039462 8:0.49721245 9:0.50789805 10:0.50743442 11:0.48541649 12:0.51519418 13:0.52458215 
-32 32 1:0.36980204 2:0.52616769 3:0.54119143 4:0.49929499 5:0.47767331 6:0.5148471 7:0.50596954 8:0.46145584 9:0.50993839 10:0.52373532 11:0.49855518 12:0.5095449 13:0.44836944 
-32 32 1:0.28810159 2:0.67239554 3:0.54780386 4:0.48396017 5:0.58516739 6:0.43336754 7:0.48052359 8:0.50217376 9:0.53004987 10:0.53966085 11:0.52292227 12:0.50874722 13:0.52437497 
-32 32 1:0.28952086 2:0.55129288 3:0.59837553 4:0.48412947 5:0.49469237 6:0.51553917 7:0.52213559 8:0.50439085 9:0.5305878 10:0.53037529 11:0.47815012 12:0.48082195 13:0.4763147 
-32 32 1:0.35195766 2:0.51984043 3:0.50123769 4:0.49070155 5:0.50980463 6:0.571469 7:0.52466815 8:0.49983661 9:0.53028987 10:0.46293546 11:0.51699489 12:0.50632691 13:0.51707444 
-32 32 1:0.36527856 2:0.52742843 3:0.49252711 4:0.51763159 5:0.50745141 6:0.52213069 7:0.52699469 8:0.50969379 9:0.54391782 10:0.5349487 11:0.52065037 12:0.51495873 13:0.51329599 
-0 16.70524683168303 1:0.29427372 2:0.58749057 3:0.62750773 4:0.57201616 5:0.54603904 6:0.58011987 7:0.51254353 8:0.49966721 9:0.48856866 10:0.49882818 11:0.54411017 12:0.48854931 13:0.44400735 
-0 32 1:0.33099494 2:0.62726023 3:0.63428766 4:0.50228519 5:0.52455207 6:0.51571776 7:0.48984579 8:0.4994475 9:0.51315785 10:0.50845147 11:0.53010445 12:0.56866909 13:0.51869139 
-0 30.75138780804372 1:0.29331318 2:0.66771634 3:0.65160852 4:0.54358692 5:0.65190838 6:0.51331116 7:0.4982821 8:0.48500619 9:0.50599564 10:0.48707657 11:0.56044998 12:0.51840181 13:0.49223958 
-32 0 1:0.30629054 2:0.65837811 3:0.57411835 4:0.4870369 5:0.62382795 6:0.43920149 7:0.5086722 8:0.53181443 9:0.55298977 10:0.51259135 11:0.49389757 12:0.56411996 13:0.49111218 
-32 0 1:0.19707268 2:0.6091811 3:0.60815358 4:0.52666875 5:0.53659359 6:0.53342517 7:0.51896735 8:0.49503281 9:0.51355874 10:0.51549043 11:0.49817741 12:0.45394456 13:0.43654885 
-9.603182296231472 32 1:0.33164354 2:0.60474471 3:0.57870936 4:0.4980226 5:0.51504789 6:0.50776201 7:0.51344577 8:0.49147943 9:0.54393832 10:0.51220591 11:0.4934715 12:0.53001622 13:0.50204824 
-0 32 1:0.30839828 2:0.62381216 3:0.65763958 4:0.48197536 5:0.62904152 6:0.51408887 7:0.51254586 8:0.4755347 9:0.50882184 10:0.52226498 11:0.55952537 12:0.51087537 13:0.50632178 
-0 32 1:0.25478155 2:0.64843116 3:0.56401509 4:0.56039765 5:0.46719984 6:0.5614746 7:0.50084875 8:0.48662245 9:0.5093713 10:0.52380389 11:0.4525985 12:0.50449838 13:0.46620825 
-2.471717327592447 0 1:0.21477476 2:0.63219572 3:0.64692357 4:0.53133802 5:0.5633043 6:0.45302701 7:0.47582896 8:0.48735156 9:0.46780576 10:0.51979569 11:0.51850139 12:0.46406214 13:0.49520047 
-32 32 1:0.38304954 2:0.52124285 3:0.55291926 4:0.50850417 5:0.50506224 6:0.49348876 7:0.50803796 8:0.47233154 9:0.50948262 10:0.4550411 11:0.46207547 12:0.5304065 13:0.46973759 
-32 0 1:0.22128369 2:0.50255098 3:0.57762229 4:0.52216062 5:0.53606089 6:0.48692863 7:0.50918068 8:0.50019758 9:0.53032771 10:0.50626039 11:0.53774604 12:0.52151438 13:0.50505506 
-19.31299594774766 0 1:0.24076664 2:0.67514792 3:0.64904398 4:0.54981424 5:0.59257075 6:0.44906478 7:0.51139684 8:0.48866129 9:0.47888096 10:0.52923858 11:0.51173916 12:0.53849814 13:0.51716267 
-32 32 1:0.20208259 2:0.601163 3:0.53207254 4:0.54772093 5:0.52333696 6:0.51972758 7:0.50756774 8:0.55541925 9:0.48001553 10:0.54210802 11:0.53714657 12:0.50416343 13:0.55035564 
-32 0 1:0.16696439 2:0.42686324 3:0.53120846 4:0.57088472 5:0.50551178 6:0.55716799 7:0.5209379 8:0.52342244 9:0.45235392 10:0.52591544 11:0.56224664 12:0.48369406 13:0.47400821 
-32 32 1:0.34897342 2:0.42952017 3:0.49450532 4:0.58368026 5:0.4778373 6:0.5729624 7:0.54502979 8:0.5282241 9:0.4954218 10:0.49883659 11:0.44977685 12:0.56971634 13:0.4932318 
-32 32 1:0.2867247 2:0.44289419 3:0.54966899 4:0.5512583 5:0.47312275 6:0.51771867 7:0.49499586 8:0.53281855 9:0.54540184 10:0.53775041 11:0.49949487 12:0.51864752 13:0.52539866 
-32 0 1:0.16414472 2:0.42272301 3:0.52209843 4:0.60541978 5:0.51208786 6:0.53132735 7:0.4932213 8:0.53835525 9:0.47879943 10:0.47168047 11:0.5092692 12:0.54075306 13:0.51645821 
-32 22.48644108434161 1:0.20984737 2:0.40625574 3:0.50029626 4:0.57679018 5:0.46980217 6:0.55019787 7:0.47579346 8:0.49622093 9:0.52565466 10:0.54753525 11:0.52389203 12:0.50637219 13:0.48816727 
-31.28640784768049 24.68693107895302 1:0.23322754 2:0.59542183 3:0.64669128 4:0.56195399 5:0.54972063 6:0.56854749 7:0.54867514 8:0.53608301 9:0.50051507 10:0.5018769 11:0.50091104 12:0.58063354 13:0.5203781 
-32 32 1:0.38914083 2:0.3758943 3:0.52456052 4:0.52757252 5:0.55362984 6:0.57388744 7:0.51323794 8:0.48336826 9:0.49056797 10:0.49389795 11:0.51485294 12:0.53388596 13:0.50588559 
-32 3.091341240579089 1:0.15839524 2:0.44257556 3:0.44904402 4:0.56181229 5:0.53208368 6:0.57071538 7:0.53525625 8:0.48544244 9:0.51595667 10:0.49419887 11:0.52616996 12:0.5161699 13:0.52203213 
-32 32 1:0.28656631 2:0.45057372 3:0.50338045 4:0.5354519 5:0.51324171 6:0.51423124 7:0.56202564 8:0.51158919 9:0.5113729 10:0.4787631 11:0.52932906 12:0.47258983 13:0.49366571 
-15.36070531337257 -32 1:0.29307973 2:0.53872587 3:0.68081028 4:0.67527983 5:0.44986928 6:0.57699262 7:0.45296793 8:0.60548141 9:0.52140788 10:0.51045357 11:0.51795164 12:0.49621938 13:0.51567065 
-31.66280539204427 -0 1:0.44559608 2:0.44061715 3:0.52926996 4:0.58549444 5:0.46317322 6:0.53563442 7:0.51786135 8:0.49222887 9:0.5373208 10:0.51727707 11:0.48279871 12:0.5310372 13:0.52143667 
-0 -10.64572124018059 1:0.32292092 2:0.61963115 3:0.61250867 4:0.5240998 5:0.45698252 6:0.56689628 7:0.50924914 8:0.44913092 9:0.63162791 10:0.47814626 11:0.51498806 12:0.47435689 13:0.51602494 
-6.237873590283616 -23.22739133078245 1:0.15199716 2:0.6708543 3:0.77939228 4:0.56972399 5:0.53090553 6:0.48493609 7:0.50080551 8:0.53316362 9:0.56517391 10:0.44128344 11:0.55583656 12:0.4784648 13:0.60432051 
-32 -32 1:0.38228515 2:0.54473071 3:0.49584995 4:0.48889901 5:0.5283999 6:0.47804311 7:0.51298611 8:0.55622258 9:0.49439157 10:0.51327157 11:0.52770429 12:0.43177226 13:0.50349008 
-32 -32 1:0.36897552 2:0.51476191 3:0.60905563 4:0.51103751 5:0.52765561 6:0.41832991 7:0.42952725 8:0.56854889 9:0.50633231 10:0.53814543 11:0.52430412 12:0.51782624 13:0.52954349 
-0 -32 1:0.40533268 2:0.53602655 3:0.59058226 4:0.55528812 5:0.52585805 6:0.51460713 7:0.52253637 8:0.48823202 9:0.4741615 10:0.51605298 11:0.4592655 12:0.48630938 13:0.50890822 
-32 -32 1:0.33544442 2:0.48950117 3:0.54105968 4:0.49099181 5:0.49512675 6:0.49947707 7:0.56994605 8:0.5307731 9:0.48212462 10:0.48076698 11:0.50654584 12:0.48013703 13:0.51282862 
-32 -32 1:0.049840715 2:0.56813803 3:0.57107073 4:0.51911853 5:0.6040461 6:0.47215041 7:0.48676441 8:0.51992822 9:0.51773651 10:0.53678826 11:0.50487537 12:0.54053327 13:0.53271801 
-32 -32 1:0.32781533 2:0.46253402 3:0.52944022 4:0.52907689 5:0.57095773 6:0.49539191 7:0.50685919 8:0.47105822 9:0.51938385 10:0.52922417 11:0.43624395 12:0.49165853 13:0.48506415 
-32 -32 1:0.31262459 2:0.47767675 3:0.52237443 4:0.47558095 5:0.5760818 6:0.54070768 7:0.54046132 8:0.52325045 9:0.49422372 10:0.53437855 11:0.53797074 12:0.46832881 13:0.50339493 
-32 -32 1:0.20909537 2:0.63980716 3:0.72164262 4:0.56537718 5:0.48867534 6:0.55858122 7:0.50745705 8:0.50037224 9:0.63964509 10:0.48814944 11:0.53959851 12:0.54650238 13:0.54221557 
-0 -32 1:0.52319606 2:0.47858773 3:0.46559697 4:0.44543305 5:0.50868766 6:0.54542046 7:0.43349855 8:0.47410998 9:0.53696087 10:0.53429681 11:0.43339273 12:0.53243813 13:0.49368509 
-12.19367526771119 -32 1:0.4772802 2:0.49723186 3:0.47837786 4:0.4563988 5:0.51889319 6:0.50064572 7:0.52752876 8:0.55022922 9:0.50645616 10:0.49970146 11:0.50997523 12:0.49667939 13:0.51099373 
-32 -32 1:0.41548432 2:0.52859511 3:0.49172661 4:0.49905923 5:0.47959539 6:0.48707327 7:0.52637198 8:0.47236659 9:0.51905006 10:0.49207607 11:0.49403597 12:0.47465534 13:0.49275063 
-16.88607548355219 -10.45746809617643 1:0.45218593 2:0.48620186 3:0.53878481 4:0.51764316 5:0.56200786 6:0.52259308 7:0.61285181 8:0.55987777 9:0.48013319 10:0.53365369 11:0.49227729 12:0.49667456 13:0.50745255 
-32 -32 1:0.22385089 2:0.66816331 3:0.56144868 4:0.50168265 5:0.54993064 6:0.52208258 7:0.5322941 8:0.47311561 9:0.54446499 10:0.46735496 11:0.48873537 12:0.49551475 13:0.5362184 
-32 -32 1:0.36853834 2:0.56702798 3:0.55318418 4:0.51391323 5:0.55461638 6:0.51417924 7:0.51295795 8:0.51405638 9:0.48579852 10:0.5843802 11:0.49350607 12:0.52146103 13:0.5125185 
-10.31468762953384 -32 1:0.39965972 2:0.57300452 3:0.52109279 4:0.52759461 5:0.51478807 6:0.45676167 7:0.53457289 8:0.49967786 9:0.53764178 10:0.49508932 11:0.47711285 12:0.47605547 13:0.51948868 
-0 -14.51987909610802 1:0.5 2:0.5 3:0.5 4:0.5 5:0.5 6:0.5 7:0.5 8:0.5 9:0.5 10:0.5 11:0.5 12:0.5 13:0.5 
-32 -32 1:0.32585277 2:0.57390623 3:0.54801776 4:0.54572591 5:0.54817201 6:0.54265335 7:0.50479775 8:0.53265577 9:0.52413087 10:0.50455549 11:0.52203546 12:0.51012714 13:0.49117963 
-32 -32 1:0.20984086 2:0.6713905 3:0.44438459 4:0.36743281 5:0.50492461 6:0.47555737 7:0.51053948 8:0.41753735 9:0.5206629 10:0.45146502 11:0.52130565 12:0.49692435 13:0.48896306 
-32 -32 1:0.30992046 2:0.50423607 3:0.52629804 4:0.49918585 5:0.54308383 6:0.51900488 7:0.51813424 8:0.47287543 9:0.49945681 10:0.5101715 11:0.49253384 12:0.57435896 13:0.47537697 
-32 -32 1:0.33328042 2:0.55974382 3:0.52748328 4:0.55528696 5:0.5144702 6:0.53918605 7:0.54479948 8:0.48289826 9:0.49380206 10:0.48747045 11:0.47889871 12:0.48775318 13:0.44675163 
-32 -32 1:0.18106449 2:0.66400064 3:0.71877129 4:0.57215736 5:0.47652525 6:0.50499851 7:0.50369774 8:0.50361888 9:0.59628518 10:0.45425106 11:0.50317492 12:0.44147956 13:0.52100311 
-0 -32 1:0.45693385 2:0.54109331 3:0.52368485 4:0.49574422 5:0.52813425 6:0.52133776 7:0.56753832 8:0.51915527 9:0.50907509 10:0.55446494 11:0.54168324 12:0.51294737 13:0.49817272 
-32 -32 1:0.24746616 2:0.52614799 3:0.51423927 4:0.52544842 5:0.48443072 6:0.54302206 7:0.51801864 8:0.5284169 9:0.47008994 10:0.48795043 11:0.50986791 12:0.50333873 13:0.51423606 
-32 -32 1:0.45508424 2:0.47560745 3:0.45484418 4:0.49581572 5:0.48463853 6:0.5124802 7:0.54992415 8:0.45865837 9:0.48243006 10:0.52105505 11:0.52720092 12:0.48595532 13:0.47811917 
-0 -32 1:0.49484585 2:0.44026704 3:0.54473464 4:0.49738532 5:0.47133133 6:0.497014 7:0.47226331 8:0.52871301 9:0.54105354 10:0.47924139 11:0.55604351 12:0.5308232 13:0.50221227 
-32 -32 1:0.24767998 2:0.50440193 3:0.5438388 4:0.53264259 5:0.49393565 6:0.55279059 7:0.50538403 8:0.5152701 9:0.53565534 10:0.52946749 11:0.46594899 12:0.50510833 13:0.51762198 
-23.69080017253077 -32 1:0.4106246 2:0.52238824 3:0.55906907 4:0.48066727 5:0.57404667 6:0.50454395 7:0.51509849 8:0.49027176 9:0.54427001 10:0.49742377 11:0.50096723 12:0.5164436 13:0.477559 
-15.29520654588922 -20.56785993083354 1:0.14937989 2:0.62715926 3:0.62269358 4:0.59166729 5:0.57357367 6:0.52153183 7:0.57588547 8:0.41235242 9:0.62949539 10:0.44616592 11:0.55018688 12:0.51074597 13:0.58712416 
-30.99669878583157 -0 1:0.47782176 2:0.47612194 3:0.50462958 4:0.45592804 5:0.47879 6:0.48853526 7:0.51772836 8:0.44293329 9:0.46958431 10:0.53116577 11:0.48598014 12:0.4393993 13:0.48759771 
-32 -32 1:0.37798837 2:0.50748243 3:0.51487477 4:0.46692633 5:0.52416981 6:0.47149339 7:0.56598743 8:0.49076766 9:0.50433244 10:0.4892747 11:0.49423968 12:0.51214281 13:0.48494326 
